{"0_weights": [[0.0804300531744957, -0.2744036018848419, -0.02687515690922737, 0.40785691142082214, -0.3948814868927002, -0.5787527561187744, -0.08481355011463165, -0.3460928201675415, 1.0295099020004272, 0.02746928669512272, -0.15393276512622833, 0.36247727274894714, 0.8588153719902039, 0.9559810757637024, -0.14951273798942566, 0.009922312572598457], [-0.31669116020202637, -0.28023815155029297, -0.2704407870769501, 0.3447038233280182, 0.5623243451118469, -0.06856302917003632, 0.03475077450275421, 0.6345664858818054, 0.3472305238246918, -0.1495063304901123, -0.8103806972503662, 0.09617600589990616, -0.38730189204216003, -0.4633314609527588, 0.2520199418067932, 0.06330398470163345], [-0.18933135271072388, -0.7327576279640198, 0.4706750810146332, -0.2321529984474182, 0.7506541013717651, 0.3132654130458832, 0.02730986289680004, -0.22537115216255188, -0.20268915593624115, -0.03742830827832222, 0.4792971611022949, -0.7856309413909912, 0.3857441246509552, 0.18838368356227875, -0.17896725237369537, 0.15089446306228638], [-0.3362963795661926, 0.5831782817840576, -0.37448906898498535, 0.7322008013725281, -0.1455826312303543, -0.010771339759230614, -0.24289245903491974, 0.012978434562683105, -0.4159550964832306, 0.17877106368541718, 0.1263909935951233, 0.2936035394668579, -0.49030986428260803, -0.26233071088790894, -0.02994641102850437, 0.045888930559158325], [0.002879963954910636, 0.12330669164657593, -0.015837902203202248, -0.08063804358243942, 0.8187212347984314, -0.020077688619494438, 0.015753639861941338, 0.4707265794277191, 0.03418848663568497, 0.2235995978116989, -0.5093624591827393, 0.26512032747268677, 0.2715919315814972, 0.155581533908844, 0.46920451521873474, -0.16412439942359924], [-0.2809152603149414, -0.3604204058647156, -0.1721334308385849, -0.3050674498081207, 0.12531836330890656, -0.24503640830516815, -0.14094428718090057, 0.7310802340507507, 0.22969014942646027, -0.7787663340568542, 0.04428242892026901, -0.7200945615768433, 0.49060067534446716, 0.33359774947166443, -0.4402763545513153, 0.3301025629043579], [0.28294065594673157, 0.4731079638004303, 0.4777502715587616, 0.2594367563724518, 0.24349699914455414, 1.071336030960083, 0.6796489357948303, 1.1915428638458252, -0.423592746257782, 0.7787292003631592, -0.2579806447029114, 0.40488484501838684, 0.770263671875, 1.1741394996643066, 1.3608871698379517, 0.14577725529670715], [-0.054883453994989395, -0.09916387498378754, -0.6902498006820679, -0.23324863612651825, -0.36968013644218445, 0.05756838247179985, 0.3242408335208893, -0.31893888115882874, 0.5608478784561157, 0.35108014941215515, 0.2543995678424835, -0.0525074377655983, 0.24891948699951172, 0.7854067087173462, -0.16260765492916107, -0.6108034253120422], [0.037968412041664124, -0.0813516303896904, -0.45829835534095764, -0.16865964233875275, -0.4382498860359192, -0.012347080744802952, -0.8079008460044861, 0.30246344208717346, 0.11277974396944046, 0.18185307085514069, -0.6463225483894348, -0.32219672203063965, 0.13602283596992493, 0.19236060976982117, 0.17062558233737946, 0.2791205942630768], [0.2324380725622177, 0.17209970951080322, 0.2566114366054535, 0.15375685691833496, 0.35382336378097534, -0.35818013548851013, 0.6870619654655457, 0.04515529051423073, -0.16298218071460724, -0.29250288009643555, -0.10789091885089874, 0.2705115079879761, -0.02909705974161625, 0.21460160613059998, 0.02381622977554798, 0.29015418887138367], [0.05938192084431648, -0.49956876039505005, -0.14369763433933258, -0.14006716012954712, -0.33198490738868713, -0.1269501894712448, 0.04207242652773857, 0.2991965413093567, 0.28188562393188477, 0.5939285755157471, 0.06660293787717819, -0.20226867496967316, 0.47224390506744385, -0.3500295579433441, 0.06770172715187073, 0.13339845836162567]], "1_weights": [[0.47966551780700684, -0.048934753984212875, 0.26543745398521423, -0.08516854047775269, -0.31522998213768005, 0.13108408451080322, 0.03273211047053337, -0.058899134397506714, -0.6066992282867432, -0.24856099486351013, 0.33846980333328247, 0.7284119725227356, -0.06918181478977203, -0.3827422261238098, 0.23484839498996735, 0.4745248556137085], [0.11162951588630676, 0.011285396292805672, 0.19153854250907898, 0.09560989588499069, 0.23540733754634857, 0.39988788962364197, -0.33944594860076904, 0.2449367195367813, 0.9860028624534607, -0.5659207701683044, 0.5626281499862671, -0.2232276201248169, -0.2907548248767853, -1.005541205406189, -0.25960537791252136, -0.84930419921875], [0.9068072438240051, -0.6698381304740906, -0.1685459464788437, 0.5286780595779419, -0.20219264924526215, 0.07561299204826355, 0.7036556005477905, -0.14395761489868164, 0.13709773123264313, -0.7058977484703064, 0.0713440403342247, -0.1593012809753418, 0.6901553869247437, 0.3457692265510559, -0.9421876668930054, -0.6010971665382385], [0.48991358280181885, 0.4376091957092285, 0.026454292237758636, -0.12244772166013718, 0.3611079454421997, -0.39581385254859924, -0.609217643737793, -0.2938458025455475, 0.14764182269573212, -0.34591299295425415, 0.1636139452457428, 0.44868558645248413, -0.2231217920780182, -0.42396169900894165, 0.3113281726837158, -0.8890073895454407], [-0.28270378708839417, -0.30622193217277527, -0.0030391914770007133, 0.5684589147567749, 0.22228889167308807, -0.04590187966823578, 0.14889152348041534, 0.3428631126880646, -0.3351074457168579, -0.01888335682451725, -0.479874849319458, -0.36819034814834595, 0.15251560509204865, 0.0669880360364914, -0.02142053097486496, -0.15821713209152222], [0.09329111129045486, 0.5235989689826965, 0.3881179094314575, -0.05345765873789787, 0.5335584878921509, -0.42976710200309753, 0.4633435606956482, 0.5065835118293762, -0.03464512899518013, -0.03742370754480362, -0.1400105059146881, -0.7789531350135803, 0.32175135612487793, 0.09052694588899612, 0.13711147010326385, 0.09805865585803986], [-0.5198431015014648, 0.5703285336494446, 0.1336819976568222, -0.03192596882581711, 0.6954306960105896, 0.013729806058108807, -0.3256179094314575, -0.08108746260404587, 0.165064737200737, -0.6327168345451355, 0.3224348723888397, -0.23302790522575378, -0.21763263642787933, -0.018534662202000618, -0.21672458946704865, 0.10148415714502335], [0.1805693656206131, -0.2140718549489975, 0.40663155913352966, 0.44847923517227173, 0.31186655163764954, 0.12832915782928467, -0.11348807066679001, 0.4826175570487976, -0.6607466340065002, 0.4461364150047302, 0.3394220173358917, -0.5293739438056946, 0.16099074482917786, 0.3281117081642151, 0.061910826712846756, -0.5110132694244385], [-0.030787630006670952, -0.3267665505409241, 0.14451688528060913, 0.7958650588989258, -0.5090972185134888, -0.04374416545033455, 0.2305782437324524, -0.4327276051044464, -0.19093723595142365, -0.08502461761236191, -0.09958989173173904, -0.5585752725601196, -0.9937580823898315, 0.09987499564886093, -0.556648313999176, 0.37672117352485657], [0.5784525275230408, 0.02170313522219658, -0.17219196259975433, 0.08474669605493546, -0.1503516584634781, 0.3446398675441742, 0.5138043165206909, -0.4524647295475006, -0.321148544549942, 0.12522393465042114, -0.35012316703796387, 0.29998907446861267, -0.9062626361846924, 0.18248498439788818, -0.6023973226547241, 0.7472394704818726], [-0.3249698281288147, 0.06865470856428146, 0.03283798322081566, 0.27911949157714844, -0.03542665019631386, -0.020389756187796593, -0.08869561553001404, -0.24569277465343475, 0.5441072583198547, 0.20213642716407776, -0.4768494665622711, 0.5819267630577087, -0.21874980628490448, 0.6452515721321106, -0.059652648866176605, 0.18654672801494598], [-0.005809693597257137, 0.07236486673355103, 0.599715530872345, 0.46400535106658936, 0.46740904450416565, -0.3610897660255432, -0.931423008441925, 0.18761798739433289, 0.6137902736663818, -0.07450012862682343, 0.4115080237388611, -0.5288358926773071, 0.6406123638153076, -0.6732817888259888, 0.29946908354759216, -0.7074543237686157], [-0.20182834565639496, -0.19726847112178802, -0.25133293867111206, 0.04083779826760292, 0.24235942959785461, -0.02865225449204445, 0.6489840149879456, -0.08576271682977676, -0.6201759576797485, -0.013341293670237064, -0.26507705450057983, 0.0177776999771595, 0.11420776695013046, 0.7823968529701233, -1.1516865491867065, 0.1691018044948578], [-0.24210019409656525, 0.4755578339099884, 0.016420697793364525, 0.173113614320755, -0.3215347230434418, -0.3322579860687256, 0.8012553453445435, -0.19656237959861755, 0.12736651301383972, -0.021593185141682625, 0.17812573909759521, 0.3911001682281494, -0.2990577816963196, 0.41071200370788574, -0.15534469485282898, -0.04442175105214119], [0.18597136437892914, -0.02213219925761223, 0.1496671736240387, 0.25840628147125244, 0.769881546497345, -0.13053007423877716, -0.1376645416021347, 0.5997439026832581, -0.267008513212204, -0.41027581691741943, 0.3016083538532257, 0.4294459819793701, 0.5181769728660583, 0.2839242219924927, 0.5229389071464539, -0.665094792842865], [0.23184596002101898, -0.037854354828596115, -0.03374569118022919, -0.24521882832050323, -0.2700723111629486, -0.0970957949757576, -0.06944237649440765, 0.09845474362373352, 0.7393085360527039, 0.5830295085906982, 0.11526463180780411, 0.2920796573162079, 0.16461309790611267, -0.13731348514556885, -0.5417832732200623, -0.04310841113328934]], "2_weights": [[0.18554271757602692, 0.4376422166824341, 0.4560334384441376], [0.21091283857822418, 0.4592597782611847, 0.8514324426651001], [0.1828605979681015, 0.3357352018356323, -0.3405880033969879], [0.008715423755347729, 0.15694652497768402, -0.47148340940475464], [0.4345262944698334, -0.035924144089221954, -0.07740344107151031], [-0.0360988974571228, 0.02827858366072178, -0.008724338375031948], [-0.36140674352645874, -0.4451883137226105, -0.278226375579834], [0.34846991300582886, 0.0140514075756073, -0.3523840010166168], [-0.37211552262306213, -0.17398199439048767, 0.3938603699207306], [0.7303574085235596, 0.5416036248207092, 0.48592090606689453], [0.5663911700248718, 0.4805010259151459, 0.506946861743927], [0.8080356121063232, 0.4110664427280426, -0.10440414398908615], [0.7073152661323547, -0.6231145262718201, 0.01378051470965147], [-0.6420535445213318, -0.6253842711448669, -0.3138061761856079], [0.7833147644996643, 0.5779448747634888, 0.13536295294761658], [0.3078216314315796, 0.4542689025402069, 0.4257130026817322]], "0_bias": [-0.10841655731201172, -0.055619753897190094, -0.022152505815029144, 0.07682717591524124, 0.007065886165946722, 0.281335711479187, -0.030978325754404068, 0.08572854846715927, 0.0019078790210187435, -0.08223912119865417, 0.05056663602590561, -0.005443522706627846, -0.0020914291962981224, 0.05882858857512474, 0.21607449650764465, 0.1299857199192047], "1_bias": [0.18573972582817078, 0.26093044877052307, 0.04725775867700577, -0.14242242276668549, 0.1298539936542511, -0.035843025892972946, -0.04268566891551018, -0.10517419129610062, 0.044526733458042145, 0.02272403985261917, 0.009565283544361591, -0.06046444922685623, -0.3093218505382538, -0.03769833967089653, 0.11578777432441711, 0.0712590366601944], "2_bias": [0.18649494647979736, 0.12403927743434906, 0.11421901732683182],"obj_num": 4}